digraph Tree {
node [shape=box] ;
0 [label="petal length (cm) <= 2.45\ngini = 0.667\nsamples = 150\nvalue = [50, 50, 50]\nclass = setosa"] ;
1 [label="gini = 0.0\nsamples = 50\nvalue = [50, 0, 0]\nclass = setosa"] ;
0 -> 1 [labeldistance=2.5, labelangle=45, headlabel="True"] ;
2 [label="petal width (cm) <= 1.75\ngini = 0.5\nsamples = 100\nvalue = [0, 50, 50]\nclass = versicolor"] ;
0 -> 2 [labeldistance=2.5, labelangle=-45, headlabel="False"] ;
3 [label="petal length (cm) <= 4.95\ngini = 0.168\nsamples = 54\nvalue = [0, 49, 5]\nclass = versicolor"] ;
2 -> 3 ;
4 [label="gini = 0.041\nsamples = 48\nvalue = [0, 47, 1]\nclass = versicolor"] ;
3 -> 4 ;
5 [label="gini = 0.444\nsamples = 6\nvalue = [0, 2, 4]\nclass = virginica"] ;
3 -> 5 ;
6 [label="petal length (cm) <= 4.85\ngini = 0.043\nsamples = 46\nvalue = [0, 1, 45]\nclass = virginica"] ;
2 -> 6 ;
7 [label="gini = 0.444\nsamples = 3\nvalue = [0, 1, 2]\nclass = virginica"] ;
6 -> 7 ;
8 [label="gini = 0.0\nsamples = 43\nvalue = [0, 0, 43]\nclass = virginica"] ;
6 -> 8 ;
}